{"type":"LSTMTimeStep","options":{"inputSize":5,"hiddenLayers":[10,10],"outputSize":5,"decayRate":0.999,"smoothEps":1e-8,"regc":0.000001,"clipval":5},"hiddenLayers":[{"inputMatrix":{"rows":10,"columns":5,"weights":{"0":0.3170153498649597,"1":0.006180462893098593,"2":0.6496359705924988,"3":0.2975318729877472,"4":0.16704538464546204,"5":0.3170153796672821,"6":0.006180466152727604,"7":0.6496361494064331,"8":0.29753178358078003,"9":0.16704541444778442,"10":0.31701523065567017,"11":0.006180462893098593,"12":0.6496361494064331,"13":0.2975318729877472,"14":0.16704541444778442,"15":0.3170153498649597,"16":0.0061804624274373055,"17":0.6496360898017883,"18":0.29753172397613525,"19":0.16704541444778442,"20":0.31701523065567017,"21":0.00618046335875988,"22":0.6496362090110779,"23":0.29753175377845764,"24":0.16704541444778442,"25":0.31701523065567017,"26":0.006180462893098593,"27":0.6496360898017883,"28":0.29753178358078003,"29":0.16704538464546204,"30":0.3170153796672821,"31":0.006180462893098593,"32":0.6496360301971436,"33":0.29753178358078003,"34":0.16704538464546204,"35":0.31701526045799255,"36":0.006180461496114731,"37":0.6496361494064331,"38":0.2975318133831024,"39":0.16704539954662323,"40":0.3170152008533478,"41":0.00618046335875988,"42":0.6496361494064331,"43":0.29753178358078003,"44":0.16704538464546204,"45":0.31701529026031494,"46":0.006180462893098593,"47":0.6496359705924988,"48":0.29753175377845764,"49":0.16704542934894562}},"inputHidden":{"rows":10,"columns":10,"weights":{"0":-0.040291763842105865,"1":-0.040291763842105865,"2":0.04029176011681557,"3":0.040291763842105865,"4":0.04029176011681557,"5":0.040291763842105865,"6":0.040291763842105865,"7":-0.040291763842105865,"8":-0.04029176011681557,"9":-0.040291763842105865,"10":-0.040291763842105865,"11":-0.040291763842105865,"12":0.040291763842105865,"13":0.040291763842105865,"14":0.040291763842105865,"15":0.040291763842105865,"16":0.040291763842105865,"17":-0.040291767567396164,"18":-0.040291763842105865,"19":-0.040291763842105865,"20":-0.04029177129268646,"21":-0.040291763842105865,"22":0.040291767567396164,"23":0.040291763842105865,"24":0.04029177129268646,"25":0.04029177129268646,"26":0.040291763842105865,"27":-0.04029177129268646,"28":-0.04029177129268646,"29":-0.040291763842105865,"30":-0.04029177874326706,"31":-0.04029177501797676,"32":0.04029177129268646,"33":0.04029177501797676,"34":0.04029177129268646,"35":0.04029177129268646,"36":0.04029177129268646,"37":-0.04029177129268646,"38":-0.04029177129268646,"39":-0.04029177501797676,"40":-0.040291763842105865,"41":-0.04029176011681557,"42":0.040291763842105865,"43":0.040291763842105865,"44":0.040291763842105865,"45":0.04029176011681557,"46":0.04029176011681557,"47":-0.04029176011681557,"48":-0.04029176011681557,"49":-0.040291763842105865,"50":-0.04029175639152527,"51":-0.04029176011681557,"52":0.04029175639152527,"53":0.04029175639152527,"54":0.04029175639152527,"55":0.04029175639152527,"56":0.04029176011681557,"57":-0.04029175639152527,"58":-0.04029176011681557,"59":-0.04029175639152527,"60":-0.04029177874326706,"61":-0.04029177874326706,"62":0.04029177874326706,"63":0.04029177874326706,"64":0.04029177874326706,"65":0.04029178246855736,"66":0.04029178246855736,"67":-0.04029177874326706,"68":-0.04029177874326706,"69":-0.04029177874326706,"70":-0.04029175639152527,"71":-0.04029175639152527,"72":0.04029175639152527,"73":0.04029175639152527,"74":0.04029176011681557,"75":0.04029175266623497,"76":0.04029175639152527,"77":-0.04029175639152527,"78":-0.04029175639152527,"79":-0.04029175639152527,"80":-0.04029177129268646,"81":-0.040291767567396164,"82":0.04029177129268646,"83":0.040291767567396164,"84":0.04029177129268646,"85":0.04029177129268646,"86":0.040291767567396164,"87":-0.04029177129268646,"88":-0.04029177129268646,"89":-0.040291767567396164,"90":-0.04029177874326706,"91":-0.04029177874326706,"92":0.04029177501797676,"93":0.04029177501797676,"94":0.04029177501797676,"95":0.04029177501797676,"96":0.04029177501797676,"97":-0.04029177874326706,"98":-0.04029177501797676,"99":-0.04029177501797676}},"inputBias":{"rows":10,"columns":1,"weights":{"0":0.6021783351898193,"1":0.6021779775619507,"2":0.6021780967712402,"3":0.602178156375885,"4":0.6021783351898193,"5":0.6021783351898193,"6":0.6021780967712402,"7":0.6021782159805298,"8":0.602178156375885,"9":0.6021782159805298}},"forgetMatrix":{"rows":10,"columns":5,"weights":{"0":0.03870590031147003,"1":0.0009683653479442,"2":0.08265998959541321,"3":0.033936794847249985,"4":0.021317128092050552,"5":0.03870588541030884,"6":0.0009683653479442,"7":0.08265998214483261,"8":0.03393678367137909,"9":0.02131713554263115,"10":0.03870588541030884,"11":0.0009683653479442,"12":0.08265998959541321,"13":0.03393677622079849,"14":0.0213171299546957,"15":0.038705892860889435,"16":0.0009683653479442,"17":0.0826599970459938,"18":0.03393678739666939,"19":0.021317124366760254,"20":0.03870590031147003,"21":0.0009683649986982346,"22":0.08265998214483261,"23":0.03393677622079849,"24":0.02131713181734085,"25":0.03870588168501854,"26":0.0009683649986982346,"27":0.0826599970459938,"28":0.03393677622079849,"29":0.021317122504115105,"30":0.03870588541030884,"31":0.0009683653479442,"32":0.08265997469425201,"33":0.0339367650449276,"34":0.021317133679986,"35":0.03870590031147003,"36":0.0009683645912446082,"37":0.082660011947155,"38":0.033936772495508194,"39":0.02131713181734085,"40":0.038705892860889435,"41":0.0009683647658675909,"42":0.08265998214483261,"43":0.033936791121959686,"44":0.021317126229405403,"45":0.03870589658617973,"46":0.0009683646494522691,"47":0.08265998214483261,"48":0.033936794847249985,"49":0.021317124366760254}},"forgetHidden":{"rows":10,"columns":10,"weights":{"0":-0.05537921562790871,"1":-0.05537921562790871,"2":0.05537921190261841,"3":0.05537921562790871,"4":0.05537921190261841,"5":0.05537921562790871,"6":0.05537921562790871,"7":-0.05537921562790871,"8":-0.05537921562790871,"9":-0.05537921562790871,"10":-0.05537920817732811,"11":-0.05537920817732811,"12":0.05537920817732811,"13":0.05537920817732811,"14":0.05537920817732811,"15":0.05537921190261841,"16":0.05537920817732811,"17":-0.05537920445203781,"18":-0.05537920817732811,"19":-0.05537920817732811,"20":-0.05537920817732811,"21":-0.05537920445203781,"22":0.05537920445203781,"23":0.05537920817732811,"24":0.05537920817732811,"25":0.05537921190261841,"26":0.05537920445203781,"27":-0.05537920817732811,"28":-0.05537920445203781,"29":-0.05537920445203781,"30":-0.055379197001457214,"31":-0.05537918955087662,"32":0.05537918955087662,"33":0.055379193276166916,"34":0.055379197001457214,"35":0.055379197001457214,"36":0.055379193276166916,"37":-0.05537918955087662,"38":-0.055379193276166916,"39":-0.055379197001457214,"40":-0.055379193276166916,"41":-0.055379193276166916,"42":0.05537918955087662,"43":0.055379193276166916,"44":0.055379193276166916,"45":0.055379197001457214,"46":0.05537918955087662,"47":-0.055379193276166916,"48":-0.055379193276166916,"49":-0.055379193276166916,"50":-0.055379193276166916,"51":-0.055379193276166916,"52":0.05537918955087662,"53":0.05537918955087662,"54":0.055379193276166916,"55":0.055379193276166916,"56":0.055379193276166916,"57":-0.05537918955087662,"58":-0.05537918955087662,"59":-0.05537918955087662,"60":-0.055379193276166916,"61":-0.055379197001457214,"62":0.055379193276166916,"63":0.055379193276166916,"64":0.055379197001457214,"65":0.055379197001457214,"66":0.055379197001457214,"67":-0.055379193276166916,"68":-0.055379197001457214,"69":-0.055379197001457214,"70":-0.05537921190261841,"71":-0.05537921190261841,"72":0.05537921562790871,"73":0.05537921562790871,"74":0.05537921562790871,"75":0.05537921562790871,"76":0.05537921190261841,"77":-0.05537921190261841,"78":-0.05537921562790871,"79":-0.05537921190261841,"80":-0.05537920072674751,"81":-0.055379197001457214,"82":0.05537920072674751,"83":0.05537920072674751,"84":0.05537920072674751,"85":0.05537920072674751,"86":0.05537920072674751,"87":-0.05537920072674751,"88":-0.05537920072674751,"89":-0.05537920072674751,"90":-0.05537920445203781,"91":-0.055379197001457214,"92":0.05537920072674751,"93":0.05537920445203781,"94":0.05537920445203781,"95":0.05537920072674751,"96":0.05537920072674751,"97":-0.055379197001457214,"98":-0.05537920445203781,"99":-0.05537920817732811}},"forgetBias":{"rows":10,"columns":1,"weights":{"0":0,"1":0,"2":0,"3":0,"4":0,"5":0,"6":0,"7":0,"8":0,"9":0}},"outputMatrix":{"rows":10,"columns":5,"weights":{"0":0.38522037863731384,"1":0.0075957197695970535,"2":0.7939578294754028,"3":0.3591519296169281,"4":0.20089201629161835,"5":0.3852201998233795,"6":0.0075957197695970535,"7":0.7939578294754028,"8":0.35915181040763855,"9":0.20089197158813477,"10":0.3852201998233795,"11":0.007595718372613192,"12":0.7939578294754028,"13":0.3591517508029938,"14":0.20089200139045715,"15":0.38522037863731384,"16":0.007595717441290617,"17":0.7939578890800476,"18":0.35915184020996094,"19":0.20089192688465118,"20":0.3852202892303467,"21":0.007595718838274479,"22":0.7939578294754028,"23":0.3591518998146057,"24":0.20089203119277954,"25":0.3852201998233795,"26":0.007595719303935766,"27":0.7939578294754028,"28":0.35915181040763855,"29":0.20089200139045715,"30":0.38522034883499146,"31":0.007595718372613192,"32":0.7939578294754028,"33":0.3591517508029938,"34":0.20089197158813477,"35":0.38522037863731384,"36":0.007595719303935766,"37":0.7939577698707581,"38":0.3591517508029938,"39":0.20089203119277954,"40":0.3852202892303467,"41":0.007595717441290617,"42":0.7939577698707581,"43":0.35915181040763855,"44":0.20089197158813477,"45":0.3852204382419586,"46":0.007595717441290617,"47":0.7939578294754028,"48":0.3591517508029938,"49":0.20089194178581238}},"outputHidden":{"rows":10,"columns":10,"weights":{"0":-0.0852203294634819,"1":-0.0852203294634819,"2":0.0852203294634819,"3":0.0852203369140625,"4":0.0852203369140625,"5":0.0852203369140625,"6":0.0852203369140625,"7":-0.0852203443646431,"8":-0.0852203294634819,"9":-0.0852203294634819,"10":-0.0852203369140625,"11":-0.0852203369140625,"12":0.0852203369140625,"13":0.0852203369140625,"14":0.0852203369140625,"15":0.0852203369140625,"16":0.0852203369140625,"17":-0.0852203369140625,"18":-0.0852203369140625,"19":-0.0852203369140625,"20":-0.0852203369140625,"21":-0.0852203369140625,"22":0.0852203369140625,"23":0.0852203369140625,"24":0.0852203369140625,"25":0.0852203369140625,"26":0.0852203369140625,"27":-0.0852203443646431,"28":-0.0852203369140625,"29":-0.0852203443646431,"30":-0.0852203443646431,"31":-0.0852203443646431,"32":0.0852203443646431,"33":0.0852203443646431,"34":0.0852203443646431,"35":0.0852203443646431,"36":0.0852203443646431,"37":-0.0852203443646431,"38":-0.0852203443646431,"39":-0.0852203443646431,"40":-0.0852203518152237,"41":-0.0852203518152237,"42":0.0852203443646431,"43":0.0852203443646431,"44":0.0852203518152237,"45":0.0852203443646431,"46":0.0852203443646431,"47":-0.0852203443646431,"48":-0.0852203443646431,"49":-0.0852203518152237,"50":-0.0852203294634819,"51":-0.0852203294634819,"52":0.0852203294634819,"53":0.0852203443646431,"54":0.0852203369140625,"55":0.0852203443646431,"56":0.0852203294634819,"57":-0.0852203294634819,"58":-0.0852203369140625,"59":-0.0852203369140625,"60":-0.0852203294634819,"61":-0.0852203220129013,"62":0.0852203220129013,"63":0.0852203220129013,"64":0.0852203220129013,"65":0.0852203220129013,"66":0.08522031456232071,"67":-0.0852203220129013,"68":-0.08522031456232071,"69":-0.0852203294634819,"70":-0.0852203518152237,"71":-0.0852203518152237,"72":0.0852203443646431,"73":0.0852203443646431,"74":0.0852203518152237,"75":0.0852203369140625,"76":0.0852203369140625,"77":-0.0852203443646431,"78":-0.0852203369140625,"79":-0.0852203443646431,"80":-0.08522035926580429,"81":-0.08522035926580429,"82":0.08522035926580429,"83":0.08522035926580429,"84":0.08522035926580429,"85":0.08522035926580429,"86":0.08522035926580429,"87":-0.0852203518152237,"88":-0.08522035926580429,"89":-0.08522035926580429,"90":-0.08522035926580429,"91":-0.0852203518152237,"92":0.0852203443646431,"93":0.0852203518152237,"94":0.0852203518152237,"95":0.0852203443646431,"96":0.0852203443646431,"97":-0.0852203443646431,"98":-0.0852203443646431,"99":-0.0852203518152237}},"outputBias":{"rows":10,"columns":1,"weights":{"0":0.6769349575042725,"1":0.6769349575042725,"2":0.6769351363182068,"3":0.6769350171089172,"4":0.6769348978996277,"5":0.6769348978996277,"6":0.6769348978996277,"7":0.6769348382949829,"8":0.6769350171089172,"9":0.676935076713562}},"cellActivationMatrix":{"rows":10,"columns":5,"weights":{"0":-0.3079982399940491,"1":-0.005556480493396521,"2":-0.6497341394424438,"3":-0.28604912757873535,"4":-0.16257749497890472,"5":-0.3079982399940491,"6":-0.005556482821702957,"7":-0.6497342586517334,"8":-0.28604912757873535,"9":-0.1625775247812271,"10":0.30799826979637146,"11":0.0055564832873642445,"12":0.6497342586517334,"13":0.2860492169857025,"14":0.1625775396823883,"15":0.30799829959869385,"16":0.0055564818903803825,"17":0.6497341394424438,"18":0.28604915738105774,"19":0.16257748007774353,"20":0.30799826979637146,"21":0.0055564832873642445,"22":0.6497340202331543,"23":0.28604909777641296,"24":0.1625775843858719,"25":0.3079982101917267,"26":0.005556483753025532,"27":0.6497342586517334,"28":0.2860492169857025,"29":0.1625775694847107,"30":0.30799826979637146,"31":0.00555648235604167,"32":0.6497342586517334,"33":0.28604912757873535,"34":0.1625775247812271,"35":-0.3079982101917267,"36":-0.005556480959057808,"37":-0.6497341394424438,"38":-0.28604909777641296,"39":-0.1625775843858719,"40":-0.30799829959869385,"41":-0.005556484684348106,"42":-0.6497341394424438,"43":-0.28604915738105774,"44":-0.1625775396823883,"45":-0.30799832940101624,"46":-0.0055564818903803825,"47":-0.6497341990470886,"48":-0.28604909777641296,"49":-0.16257749497890472}},"cellActivationHidden":{"rows":10,"columns":10,"weights":{"0":0.03408319875597954,"1":0.03408319503068924,"2":-0.03408319503068924,"3":-0.03408319503068924,"4":-0.03408319503068924,"5":-0.03408319503068924,"6":-0.03408319130539894,"7":0.03408319503068924,"8":0.03408319503068924,"9":0.03408319503068924,"10":0.034083202481269836,"11":0.034083202481269836,"12":-0.034083202481269836,"13":-0.034083202481269836,"14":-0.034083202481269836,"15":-0.034083202481269836,"16":-0.034083202481269836,"17":0.034083202481269836,"18":0.034083202481269836,"19":0.034083202481269836,"20":-0.034083202481269836,"21":-0.03408319875597954,"22":0.03408319875597954,"23":0.03408319875597954,"24":0.03408319875597954,"25":0.03408319875597954,"26":0.03408319875597954,"27":-0.03408319875597954,"28":-0.03408319875597954,"29":-0.034083202481269836,"30":-0.03408319130539894,"31":-0.03408319130539894,"32":0.03408319130539894,"33":0.03408318758010864,"34":0.03408318758010864,"35":0.03408318758010864,"36":0.03408318758010864,"37":-0.03408319130539894,"38":-0.03408318758010864,"39":-0.03408318758010864,"40":-0.03408319130539894,"41":-0.03408318758010864,"42":0.03408319130539894,"43":0.03408319130539894,"44":0.03408319130539894,"45":0.03408319130539894,"46":0.03408319130539894,"47":-0.03408318758010864,"48":-0.03408319130539894,"49":-0.03408318758010864,"50":-0.03408319875597954,"51":-0.03408319130539894,"52":0.03408319130539894,"53":0.034083202481269836,"54":0.03408319503068924,"55":0.03408319875597954,"56":0.03408319503068924,"57":-0.03408319130539894,"58":-0.03408319503068924,"59":-0.03408319503068924,"60":-0.03408319875597954,"61":-0.03408319503068924,"62":0.03408319875597954,"63":0.03408319875597954,"64":0.03408319875597954,"65":0.03408319503068924,"66":0.03408319503068924,"67":-0.03408319503068924,"68":-0.03408319875597954,"69":-0.03408319875597954,"70":0.034083202481269836,"71":0.034083202481269836,"72":-0.034083202481269836,"73":-0.034083202481269836,"74":-0.034083202481269836,"75":-0.034083202481269836,"76":-0.034083206206560135,"77":0.03408319875597954,"78":0.034083202481269836,"79":0.034083202481269836,"80":0.03408319130539894,"81":0.03408319130539894,"82":-0.03408319130539894,"83":-0.03408319130539894,"84":-0.03408319130539894,"85":-0.03408319130539894,"86":-0.03408319130539894,"87":0.03408319130539894,"88":0.03408319130539894,"89":0.03408319130539894,"90":0.03408318758010864,"91":0.03408318758010864,"92":-0.03408318758010864,"93":-0.03408318758010864,"94":-0.03408318758010864,"95":-0.03408318758010864,"96":-0.03408318758010864,"97":0.03408318758010864,"98":0.03408318758010864,"99":0.03408318758010864}},"cellActivationBias":{"rows":10,"columns":1,"weights":{"0":-0.6135994791984558,"1":-0.6135993599891663,"2":0.6135993003845215,"3":0.613599419593811,"4":0.6135995388031006,"5":0.6135993599891663,"6":0.6135993599891663,"7":-0.613599419593811,"8":-0.6135993599891663,"9":-0.613599419593811}}},{"inputMatrix":{"rows":10,"columns":10,"weights":{"0":0.5838026404380798,"1":0.5838025212287903,"2":-0.5838025212287903,"3":-0.5838025212287903,"4":-0.5838025212287903,"5":-0.5838025212287903,"6":-0.5838025212287903,"7":0.5838025212287903,"8":0.5838025212287903,"9":0.5838025808334351,"10":0.6758087873458862,"11":0.675808846950531,"12":-0.6758089065551758,"13":-0.675808846950531,"14":-0.675808846950531,"15":-0.6758087277412415,"16":-0.6758087873458862,"17":0.6758087873458862,"18":0.675808846950531,"19":0.6758089065551758,"20":0.6011838912963867,"21":0.6011838912963867,"22":-0.6011838912963867,"23":-0.6011838912963867,"24":-0.6011839509010315,"25":-0.6011838912963867,"26":-0.6011838912963867,"27":0.6011839509010315,"28":0.6011838912963867,"29":0.6011838912963867,"30":0.5778776407241821,"31":0.5778776407241821,"32":-0.5778775215148926,"33":-0.5778775811195374,"34":-0.5778775811195374,"35":-0.5778775811195374,"36":-0.5778775811195374,"37":0.5778775215148926,"38":0.5778775811195374,"39":0.5778775811195374,"40":0.591751217842102,"41":0.5917511582374573,"42":-0.591751217842102,"43":-0.591751217842102,"44":-0.591751217842102,"45":-0.5917511582374573,"46":-0.591751217842102,"47":0.591751217842102,"48":0.5917512774467468,"49":0.591751217842102,"50":0.5957526564598083,"51":0.5957525968551636,"52":-0.5957525968551636,"53":-0.5957527160644531,"54":-0.5957525372505188,"55":-0.5957525968551636,"56":-0.5957525968551636,"57":0.5957525372505188,"58":0.5957525372505188,"59":0.5957525968551636,"60":0.58644700050354,"61":0.5864470601081848,"62":-0.58644700050354,"63":-0.5864470601081848,"64":-0.5864469408988953,"65":-0.5864470601081848,"66":-0.5864469408988953,"67":0.5864469408988953,"68":0.5864469408988953,"69":0.58644700050354,"70":0.5793071389198303,"71":0.5793071389198303,"72":-0.5793069005012512,"73":-0.5793069005012512,"74":-0.579306960105896,"75":-0.579306960105896,"76":-0.5793069005012512,"77":0.5793070197105408,"78":0.5793068408966064,"79":0.5793070197105408,"80":0.5783434510231018,"81":0.5783434510231018,"82":-0.5783434510231018,"83":-0.5783434510231018,"84":-0.5783434510231018,"85":-0.5783434510231018,"86":-0.5783434510231018,"87":0.5783434510231018,"88":0.5783434510231018,"89":0.5783434510231018,"90":0.5790740847587585,"91":0.5790740251541138,"92":-0.5790740251541138,"93":-0.5790740847587585,"94":-0.5790740251541138,"95":-0.5790739059448242,"96":-0.579073965549469,"97":0.5790740251541138,"98":0.5790740847587585,"99":0.5790740847587585}},"inputHidden":{"rows":10,"columns":10,"weights":{"0":0.0000011090229463661672,"1":2.239958121208474e-7,"2":4.822899200007669e-7,"3":-1.9085571523191902e-7,"4":-2.4848236801489065e-9,"5":-2.0968630565221247e-7,"6":-7.762571385683259e-8,"7":4.7076717635263776e-8,"8":2.40360833458908e-7,"9":5.208344688867328e-8,"10":-4.028756706020431e-8,"11":0.000004716742751043057,"12":-2.0120467070228187e-7,"13":1.8397846801576634e-8,"14":-4.369924155867011e-8,"15":3.641413286459283e-7,"16":-1.3804728382638132e-7,"17":-1.7985136935294577e-7,"18":1.2726476938951237e-7,"19":5.436763785837684e-7,"20":-1.4294261063696467e-7,"21":-3.950945597352984e-7,"22":8.949408538683201e-7,"23":1.5518914153744845e-7,"24":4.4629508977322985e-8,"25":-4.6826976074498816e-8,"26":1.5705700207035989e-7,"27":2.2843906322123075e-8,"28":5.30839486145851e-7,"29":-2.729192942751979e-7,"30":5.3710323300038e-8,"31":2.4902655582081934e-7,"32":3.501953926843271e-7,"33":0.0000019683209302456817,"34":6.247766464184679e-7,"35":-7.878402641381399e-8,"36":1.0753380053074579e-7,"37":-1.0406971995280401e-7,"38":1.4877736020935117e-7,"39":4.048210655582807e-8,"40":-6.768985940652783e-7,"41":-6.766234861288467e-8,"42":-1.0676802730813506e-7,"43":8.342029786945204e-7,"44":0.0000019915873963327613,"45":-9.74297176270511e-9,"46":2.860392385173327e-7,"47":-9.550788604428817e-8,"48":-3.2263957905342977e-7,"49":-1.604025641199769e-7,"50":-8.62790869859964e-8,"51":-3.5381049201532733e-7,"52":-1.5956572951836279e-7,"53":4.3535202109978854e-8,"54":-3.486908184413551e-8,"55":-2.5342455245436213e-8,"56":-4.523594832051003e-9,"57":-1.6654239232138934e-7,"58":-7.011468294848555e-9,"59":-3.1976310310710687e-7,"60":-3.513415336442449e-8,"61":5.01959229737281e-9,"62":2.9128136702638585e-7,"63":1.1602369909269328e-7,"64":2.960723861633596e-7,"65":5.57937873679748e-9,"66":8.571384455535735e-7,"67":4.1643392734158624e-8,"68":-6.309535933723964e-7,"69":-1.6944419201081473e-7,"70":-3.9417628272531147e-8,"71":5.972322725256163e-8,"72":3.502800183241561e-8,"73":7.3697222546798e-8,"74":3.350444899297145e-8,"75":-2.456661007954608e-8,"76":2.5440598960813077e-8,"77":1.1937241595205705e-7,"78":1.4824254712664242e-8,"79":-2.6860424995334142e-9,"80":-6.188702172948979e-8,"81":-9.506959486316191e-8,"82":5.114251848681306e-7,"83":2.82516822380785e-7,"84":3.305142683984741e-7,"85":-3.0782299376141964e-8,"86":-1.208398998642224e-7,"87":6.221715409537865e-8,"88":-0.0000029596085369121283,"89":-4.1154385144182015e-7,"90":-4.018944110839584e-8,"91":5.394106210587779e-7,"92":1.339721933391047e-7,"93":1.911995717307491e-8,"94":1.8367647669492726e-7,"95":-1.9590751776377147e-7,"96":3.5866573711018646e-8,"97":-9.252829058503664e-10,"98":-3.9791835604319203e-8,"99":2.427254912618082e-7}},"inputBias":{"rows":10,"columns":1,"weights":{"0":-0.8308593034744263,"1":-0.9584461450576782,"2":-0.8503046035766602,"3":-0.8204684853553772,"4":-0.8423445820808411,"5":-0.8543615341186523,"6":-0.8411259651184082,"7":-0.8445566296577454,"8":-0.8126945495605469,"9":-0.8280968070030212}},"forgetMatrix":{"rows":10,"columns":10,"weights":{"0":0.0006167466635815799,"1":0.000616746605373919,"2":-0.000616746605373919,"3":-0.000616746605373919,"4":-0.000616746605373919,"5":-0.000616746605373919,"6":-0.000616746605373919,"7":0.000616746605373919,"8":0.000616746605373919,"9":0.000616746605373919,"10":0.0008527010795660317,"11":0.0008527010795660317,"12":-0.0008527010213583708,"13":-0.0008527010795660317,"14":-0.0008527009631507099,"15":-0.0008527010213583708,"16":-0.0008527010213583708,"17":0.0008527011377736926,"18":0.0008527010213583708,"19":0.0008527010795660317,"20":0.0006970317917875946,"21":0.0006970317917875946,"22":-0.0006970317917875946,"23":-0.0006970317917875946,"24":-0.0006970317917875946,"25":-0.0006970317917875946,"26":-0.0006970317917875946,"27":0.0006970317917875946,"28":0.0006970317917875946,"29":0.0006970317917875946,"30":0.0007037318428047001,"31":0.0007037318428047001,"32":-0.0007037318428047001,"33":-0.0007037318428047001,"34":-0.0007037318428047001,"35":-0.0007037318428047001,"36":-0.0007037318428047001,"37":0.000703731901012361,"38":0.0007037318428047001,"39":0.000703731901012361,"40":0.0006756057264283299,"41":0.0006756057264283299,"42":-0.0006756057264283299,"43":-0.0006756057264283299,"44":-0.0006756057264283299,"45":-0.0006756057264283299,"46":-0.0006756057264283299,"47":0.0006756057264283299,"48":0.0006756057264283299,"49":0.0006756057264283299,"50":0.0006385321030393243,"51":0.0006385321030393243,"52":-0.0006385321030393243,"53":-0.0006385321612469852,"54":-0.0006385321030393243,"55":-0.0006385321030393243,"56":-0.0006385321030393243,"57":0.0006385321030393243,"58":0.0006385321612469852,"59":0.0006385321612469852,"60":0.0006527471705339849,"61":0.0006527472287416458,"62":-0.0006527472287416458,"63":-0.0006527472287416458,"64":-0.0006527472287416458,"65":-0.0006527472287416458,"66":-0.0006527472287416458,"67":0.0006527471705339849,"68":0.0006527472287416458,"69":0.0006527472287416458,"70":0.0004977919743396342,"71":0.0004977919743396342,"72":-0.0004977919743396342,"73":-0.0004977919161319733,"74":-0.0004977918579243124,"75":-0.0004977918579243124,"76":-0.0004977917997166514,"77":0.0004977919161319733,"78":0.0004977919161319733,"79":0.0004977919743396342,"80":0.0007302972371689975,"81":0.0007302971789613366,"82":-0.0007302972371689975,"83":-0.0007302972371689975,"84":-0.0007302971789613366,"85":-0.0007302971789613366,"86":-0.0007302972371689975,"87":0.0007302971789613366,"88":0.0007302972371689975,"89":0.0007302972371689975,"90":0.0006164773367345333,"91":0.0006164772785268724,"92":-0.0006164772785268724,"93":-0.0006164773367345333,"94":-0.0006164772785268724,"95":-0.0006164772785268724,"96":-0.0006164772785268724,"97":0.0006164772785268724,"98":0.0006164772785268724,"99":0.0006164772785268724}},"forgetHidden":{"rows":10,"columns":10,"weights":{"0":1.241798042173059e-8,"1":2.3403214921557947e-9,"2":4.944283205077227e-9,"3":-1.6657556445309751e-9,"4":1.3758763572901955e-10,"5":-2.660026865441978e-9,"6":-9.546177182073734e-10,"7":4.1801731520685337e-10,"8":2.6869220182135223e-9,"9":5.65176572209225e-10,"10":-1.452642589550024e-10,"11":5.5909815444010746e-8,"12":-2.2478507943901604e-9,"13":1.8342040386531977e-10,"14":-4.5744746879350373e-10,"15":3.979121920849593e-9,"16":-1.4018991523201407e-9,"17":-2.1037340758311984e-9,"18":1.3147666289015092e-9,"19":5.910788303253867e-9,"20":-1.3876542137580827e-9,"21":-4.293402522392853e-9,"22":9.564852021526349e-9,"23":1.6159913407420845e-9,"24":5.626282217896517e-10,"25":-5.112605894197486e-10,"26":1.656910386671484e-9,"27":1.5292729582672138e-10,"28":5.572462491443275e-9,"29":-2.90894708321332e-9,"30":-1.5441546652450455e-10,"31":2.8040914035187825e-9,"32":3.571367201971043e-9,"33":2.2953397404990028e-8,"34":7.221702791326834e-9,"35":-8.717145338899002e-10,"36":1.038096386629661e-9,"37":-1.1020984125309496e-9,"38":1.5456853574846718e-9,"39":4.199355307932251e-10,"40":-7.92837706597993e-9,"41":-7.287167536063066e-10,"42":-1.2357538325957762e-9,"43":9.630978681229863e-9,"44":2.2068194382995898e-8,"45":-1.4229310785207616e-10,"46":2.896194173374056e-9,"47":-1.1604920358010418e-9,"48":-3.316489083360352e-9,"49":-1.619821055065529e-9,"50":-9.715790394437818e-10,"51":-3.619144983701972e-9,"52":-1.6516402689958909e-9,"53":5.178014683693277e-10,"54":-2.5851626395123617e-10,"55":-1.445997210858252e-9,"56":-5.912143691277905e-11,"57":-1.7834654864046229e-9,"58":-8.852132221681686e-11,"59":-3.776301493729761e-9,"60":-3.424748262759181e-10,"61":1.1499329266584368e-10,"62":3.2748885825384377e-9,"63":1.274874539269888e-9,"64":3.1564129088224036e-9,"65":5.086849691471329e-11,"66":9.733521544319501e-9,"67":1.6568818539397512e-10,"68":-6.589613299468056e-9,"69":-1.8249440847384335e-9,"70":-4.67756056110602e-10,"71":6.691402432146276e-10,"72":4.1994058230798714e-10,"73":7.971372451009984e-10,"74":4.1055292498981544e-10,"75":-3.7155697962809597e-10,"76":1.82359183309444e-10,"77":1.2101860624724736e-9,"78":1.560389178978383e-10,"79":5.3041616238092004e-11,"80":-7.750058372835156e-10,"81":-1.0249368020964766e-9,"82":5.876171105256844e-9,"83":3.624040401106754e-9,"84":3.6065099795479227e-9,"85":-3.5165231837552824e-10,"86":-8.657313199655903e-10,"87":7.823232617276688e-10,"88":-3.317026653348876e-8,"89":-4.420171340058232e-9,"90":-4.053629376610246e-10,"91":5.5608895266345826e-9,"92":1.4771798229062938e-9,"93":2.532997145365812e-10,"94":2.004878041361735e-9,"95":-2.1202262168174e-9,"96":3.935653747344503e-10,"97":-1.1469066148184215e-11,"98":-4.6181394819377886e-10,"99":2.0775179354615148e-9}},"forgetBias":{"rows":10,"columns":1,"weights":{"0":0,"1":0,"2":0,"3":0,"4":0,"5":0,"6":0,"7":0,"8":0,"9":0}},"outputMatrix":{"rows":10,"columns":10,"weights":{"0":0.5862764716148376,"1":0.5862764716148376,"2":-0.5862763524055481,"3":-0.5862764716148376,"4":-0.5862764120101929,"5":-0.5862764716148376,"6":-0.5862764716148376,"7":0.5862764120101929,"8":0.5862764716148376,"9":0.5862764716148376,"10":0.6788544654846191,"11":0.6788544654846191,"12":-0.6788544654846191,"13":-0.6788544654846191,"14":-0.6788544058799744,"15":-0.6788544058799744,"16":-0.6788544058799744,"17":0.6788544058799744,"18":0.6788544654846191,"19":0.6788544654846191,"20":0.6046566963195801,"21":0.6046566367149353,"22":-0.6046566367149353,"23":-0.6046566367149353,"24":-0.6046566367149353,"25":-0.6046566367149353,"26":-0.6046565771102905,"27":0.6046565771102905,"28":0.604656457901001,"29":0.6046566367149353,"30":0.5804603099822998,"31":0.5804603099822998,"32":-0.5804603099822998,"33":-0.5804603099822998,"34":-0.5804603099822998,"35":-0.5804603099822998,"36":-0.580460250377655,"37":0.580460250377655,"38":0.5804603099822998,"39":0.5804603099822998,"40":0.5942282676696777,"41":0.5942282676696777,"42":-0.5942282676696777,"43":-0.5942282676696777,"44":-0.5942282676696777,"45":-0.5942282676696777,"46":-0.5942282676696777,"47":0.5942282676696777,"48":0.5942282676696777,"49":0.5942282676696777,"50":0.5984991788864136,"51":0.5984992384910583,"52":-0.5984992384910583,"53":-0.5984992384910583,"54":-0.5984991788864136,"55":-0.5984991788864136,"56":-0.5984991788864136,"57":0.5984991788864136,"58":0.5984991788864136,"59":0.5984992384910583,"60":0.589430570602417,"61":0.589430570602417,"62":-0.5894306302070618,"63":-0.589430570602417,"64":-0.5894305109977722,"65":-0.5894305109977722,"66":-0.589430570602417,"67":0.589430570602417,"68":0.589430570602417,"69":0.5894305109977722,"70":0.5816513895988464,"71":0.5816513299942017,"72":-0.5816512703895569,"73":-0.5816512703895569,"74":-0.5816512703895569,"75":-0.5816512703895569,"76":-0.5816513299942017,"77":0.5816513895988464,"78":0.5816513299942017,"79":0.5816512107849121,"80":0.5807268619537354,"81":0.5807268023490906,"82":-0.5807268023490906,"83":-0.5807268023490906,"84":-0.5807268023490906,"85":-0.5807268023490906,"86":-0.5807268023490906,"87":0.5807268023490906,"88":0.5807268023490906,"89":0.5807268023490906,"90":0.5815123319625854,"91":0.5815123319625854,"92":-0.5815122127532959,"93":-0.5815123319625854,"94":-0.5815122127532959,"95":-0.5815123319625854,"96":-0.5815122127532959,"97":0.5815122723579407,"98":0.5815122127532959,"99":0.5815123319625854}},"outputHidden":{"rows":10,"columns":10,"weights":{"0":0.0000011352057072144817,"1":2.2921982179013867e-7,"2":4.919251068713493e-7,"3":-1.9422857633344393e-7,"4":-2.2270638666554987e-9,"5":-2.1502752645119472e-7,"6":-7.964401049775915e-8,"7":4.783214535564184e-8,"8":2.458308188124647e-7,"9":5.334761610242822e-8,"10":-4.0583707061614405e-8,"11":0.0000048291904022335075,"12":-2.0525533273030305e-7,"13":1.870724730679285e-8,"14":-4.460695990360364e-8,"15":3.7198387303760683e-7,"16":-1.4106413459558098e-7,"17":-1.841123093981878e-7,"18":1.298609220157232e-7,"19":5.559400619858934e-7,"20":-1.450177080641879e-7,"21":-4.0377031496063864e-7,"22":9.131074421020458e-7,"23":1.5796310037785588e-7,"24":4.578984302838762e-8,"25":-4.8006764785668565e-8,"26":1.6025367699512572e-7,"27":2.3232376022974677e-8,"28":5.410620360635221e-7,"29":-2.7882390440936433e-7,"30":5.343884623698614e-8,"31":2.547645010508859e-7,"32":3.568110855667328e-7,"33":0.000002013373887166381,"34":6.393558464878879e-7,"35":-8.053552846831735e-8,"36":1.0968850006065622e-7,"37":-1.0627502433635527e-7,"38":1.5198060054899543e-7,"39":4.135386433290478e-8,"40":-6.932028213668673e-7,"41":-6.914009986758174e-8,"42":-1.0922266113766455e-7,"43":8.536107998224907e-7,"44":0.000002034468025158276,"45":-1.0060636768116638e-8,"46":2.929384663730161e-7,"47":-9.78614593805105e-8,"48":-3.291111454473139e-7,"49":-1.6304510097597813e-7,"50":-8.795633021918547e-8,"51":-3.6094809274800355e-7,"52":-1.6273075686967786e-7,"53":4.448732227047003e-8,"54":-3.5273323817364144e-8,"55":-2.954284639145044e-8,"56":-4.64047955617275e-9,"57":-1.698954861240054e-7,"58":-7.158191817069337e-9,"59":-3.264378847234184e-7,"60":-3.588829144973715e-8,"61":5.346339371214981e-9,"62":2.979425062221708e-7,"63":1.1822261569705006e-7,"64":3.0243168680499366e-7,"65":5.67857005862038e-9,"66":8.768262773628521e-7,"67":4.187881685879802e-8,"68":-6.429892209780519e-7,"69":-1.727609202362146e-7,"70":-4.034780687334205e-8,"71":6.102597183144098e-8,"72":3.587845753827423e-8,"73":7.526589484996293e-8,"74":3.431820516652806e-8,"75":-2.532196852200741e-8,"76":2.5831178973589886e-8,"77":1.2235804547344742e-7,"78":1.5131364605736053e-8,"79":-2.575101687440906e-9,"80":-6.331553237259868e-8,"81":-9.735373396324576e-8,"82":5.23179892297776e-7,"83":2.8969370191589405e-7,"84":3.3861755355246714e-7,"85":-3.1500245967208684e-8,"86":-1.2355498313354474e-7,"87":6.385023709754023e-8,"88":-0.000003028739456567564,"89":-4.1981252252298873e-7,"90":-4.105308093471649e-8,"91":5.50813808786188e-7,"92":1.3699862222438242e-7,"93":1.9700044262549454e-8,"94":1.8761859621463373e-7,"95":-2.004639583219614e-7,"96":3.666767156573769e-8,"97":-9.522993504873511e-10,"98":-4.075711501627666e-8,"99":2.471371089995955e-7}},"outputBias":{"rows":10,"columns":1,"weights":{"0":-0.8311192989349365,"1":-0.958792507648468,"2":-0.8507053852081299,"3":-0.8207665681838989,"4":-0.8426392078399658,"5":-0.8546187281608582,"6":-0.8413670659065247,"7":-0.8447500467300415,"8":-0.8129556775093079,"9":-0.8283493518829346}},"cellActivationMatrix":{"rows":10,"columns":10,"weights":{"0":0.0005072495550848544,"1":0.0005072519998066127,"2":-0.0005072425701655447,"3":-0.0005072561325505376,"4":-0.0005072497297078371,"5":-0.0005072467029094696,"6":-0.0005072558997198939,"7":0.0005072576459497213,"8":0.0005072461790405214,"9":0.0005072611384093761,"10":0.0013078481424599886,"11":0.0013078029733151197,"12":-0.0013078381307423115,"13":-0.001307857921347022,"14":-0.0013078522169962525,"15":-0.0013078480260446668,"16":-0.0013078339397907257,"17":0.0013078309129923582,"18":0.0013078385964035988,"19":0.001307860016822815,"20":-0.0005983953597024083,"21":-0.000598390877712518,"22":0.0005983735900372267,"23":0.0005983782466500998,"24":0.0005983726587146521,"25":0.0005983877344988286,"26":0.0005983908195048571,"27":-0.0005983944283798337,"28":-0.0005983728333376348,"29":-0.000598364626057446,"30":-0.00018322888354305178,"31":-0.00018324954726267606,"32":0.00018324337725061923,"33":0.00018323701806366444,"34":0.00018322773394174874,"35":0.00018322774849366397,"36":0.00018324871780350804,"37":-0.00018321465176995844,"38":-0.00018322182586416602,"39":-0.0001832370035117492,"40":-0.0003168505209032446,"41":-0.00031687275622971356,"42":0.0003168660623487085,"43":0.0003168545663356781,"44":0.0003168689436279237,"45":0.0003168904222548008,"46":0.00031686434522271156,"47":-0.00031687752925790846,"48":-0.0003168713010381907,"49":-0.0003168674884364009,"50":-0.0009109297534450889,"51":-0.0009109600796364248,"52":0.0009109399397857487,"53":0.0009109534439630806,"54":0.000910928996745497,"55":0.000910935690626502,"56":0.0009109341190196574,"57":-0.0009109193342737854,"58":-0.0009109600214287639,"59":-0.0009109507082030177,"60":0.0011795292375609279,"61":0.0011794978054240346,"62":-0.0011794983875006437,"63":-0.0011794983875006437,"64":-0.0011795053724199533,"65":-0.0011795104946941137,"66":-0.0011794863967224956,"67":0.0011795379687100649,"68":0.0011794996680691838,"69":0.0011795024620369077,"70":0.0009892781963571906,"71":0.000989295425824821,"72":-0.0009892870439216495,"73":-0.0009892896050587296,"74":-0.0009892723755910993,"75":-0.000989279942587018,"76":-0.00098928262013942,"77":0.0009892818052321672,"78":0.0009892834350466728,"79":0.0009893112583085895,"80":0.00007536539487773553,"81":0.00007537165220128372,"82":-0.00007534733595093712,"83":-0.00007533442112617195,"84":-0.00007536246994277462,"85":-0.00007534895121352747,"86":-0.0000753422427806072,"87":0.00007536852353950962,"88":0.00007535252370871603,"89":0.00007535961049143225,"90":-0.0007390150567516685,"91":-0.000739029492251575,"92":0.0007390168611891568,"93":0.0007390104583464563,"94":0.0007390195387415588,"95":0.0007390239043161273,"96":0.0007390076643787324,"97":-0.0007390058017335832,"98":-0.000739010632969439,"99":-0.0007390122627839446}},"cellActivationHidden":{"rows":10,"columns":10,"weights":{"0":-0.000015897032426437363,"1":5.025607379138819e-7,"2":3.7682082165702013e-7,"3":0.000002859736923710443,"4":0.0000015313900121327606,"5":1.4550664673151914e-7,"6":-1.0349353374294878e-7,"7":8.42874836592955e-9,"8":2.0245661858098174e-7,"9":4.26437168243865e-7,"10":0.0000012119397752030636,"11":-0.000021130488676135428,"12":-0.0000010637794503054465,"13":-9.127981570600241e-7,"14":-4.3992180565055605e-8,"15":5.129322175889683e-7,"16":-3.956861860388017e-7,"17":2.1087200252623006e-7,"18":8.551378982701863e-7,"19":-0.000002166064405173529,"20":-3.6920846469001845e-7,"21":-0.0000012137885505580925,"22":-0.000019319759303471074,"23":-0.000001253391133104742,"24":-0.0000014447172134168795,"25":1.5747120585274388e-7,"26":-8.768997190600203e-7,"27":0.0000013775677416560939,"28":-3.391500911220646e-7,"29":0.0000021826865577168064,"30":0.0000029968023227411322,"31":-0.0000019096908090432407,"32":-0.000001901621885735949,"33":-0.000017986272723646834,"34":-0.000002580702584964456,"35":4.849597985412402e-7,"36":7.268986479402884e-8,"37":0.0000014224830238163122,"38":5.000837859370222e-7,"39":1.2823407757878158e-7,"40":7.014686502770928e-7,"41":-2.4806149667710997e-7,"42":-0.0000014282381926022936,"43":-0.000002926656861745869,"44":-0.000017898886653711088,"45":1.329505323610647e-7,"46":-7.050491035442974e-7,"47":0.0000019209801394026726,"48":0.0000012370588819976547,"49":0.0000011052676427425467,"50":0.0000010464857496117475,"51":6.029146106811822e-7,"52":2.1269707417559403e-7,"53":9.932929287970182e-7,"54":0.000001004802015813766,"55":-0.000016870237232069485,"56":-0.000001174816134152934,"57":-7.770557886033203e-7,"58":-2.53139916139844e-7,"59":-0.0000010457474672875833,"60":0.0000014149923117656726,"61":-0.0000013107900258546579,"62":-5.763561716776167e-7,"63":2.1763398194707406e-8,"64":-4.870721568295266e-7,"65":-8.754708460401162e-7,"66":-0.00001802851511456538,"67":-8.492182956842953e-8,"68":-2.94729261440807e-7,"69":-2.2072632077652088e-7,"70":-4.02506032060046e-7,"71":1.1223163909335199e-7,"72":0.0000016185955473702052,"73":0.0000016177963289010222,"74":0.0000013119459936206113,"75":-8.140829095282243e-7,"76":-7.526600853680065e-8,"77":-0.000013076162758807186,"78":8.885451165951963e-7,"79":-3.382968998266733e-7,"80":3.88481396385032e-7,"81":5.28500663676823e-7,"82":-0.0000010960951613014913,"83":1.829069873338085e-7,"84":0.0000016505312032677466,"85":2.854649778782914e-7,"86":-7.611858450218278e-7,"87":8.858905289343966e-7,"88":-0.00001798365883587394,"89":-1.8773638998936804e-7,"90":6.863119779154658e-7,"91":-0.0000017768649058780284,"92":0.000001262401269741531,"93":-2.318513168120262e-7,"94":0.0000010593481647447334,"95":-0.0000016430283267254708,"96":3.421304768380651e-7,"97":-7.14796101419779e-7,"98":-0.000001479804723203415,"99":-0.000016443398635601625}},"cellActivationBias":{"rows":10,"columns":1,"weights":{"0":0.0031099228654056787,"1":0.008002527989447117,"2":-0.003666061908006668,"3":-0.0011615767143666744,"4":-0.0019440656760707498,"5":-0.005587286315858364,"6":0.007241592276841402,"7":0.00604746351018548,"8":0.0003498981532175094,"9":-0.004603346344083548}}}],"outputConnector":{"rows":5,"columns":10,"weights":{"0":-0.00009377657988807186,"1":0.00002234117710031569,"2":-0.000019405782950343564,"3":-0.0001423389185220003,"4":0.000003149140184177668,"5":9.653443839852116e-7,"6":-0.00005316571332514286,"7":-0.00030770705780014396,"8":-0.00081171456258744,"9":-0.0005852659232914448,"10":0.0001282576413359493,"11":0.000007608560281369137,"12":-0.00006639071216341108,"13":-0.00004306646223994903,"14":-0.00007260496204253286,"15":-0.00018024977180175483,"16":0.000296399142825976,"17":0.00026481744134798646,"18":-0.00001040253755490994,"19":-0.0003053541877306998,"20":0.0001385940850013867,"21":-0.000003381659098522505,"22":0.00001996862374653574,"23":0.00017712468979880214,"24":-0.000011453194019850343,"25":-0.000015931953385006636,"26":0.00010407801164546981,"27":0.0004449518455658108,"28":0.0010146951535716653,"29":0.0006594370934180915,"30":-0.00005478148159454577,"31":0.000020688283257186413,"32":0.000001999091864490765,"33":0.00010461852798471227,"34":0.00002223405499535147,"35":0.000043685406126314774,"36":-0.00011027139407815412,"37":-0.00009241227962775156,"38":0.00021949157235212624,"39":0.0001955512707354501,"40":-0.00013019437028560787,"41":0.000004980081030225847,"42":0.00008829447324387729,"43":-0.0001134194535552524,"44":0.00005135742321726866,"45":0.00012352524208836257,"46":-0.0002221532486146316,"47":-0.0003871218068525195,"48":-0.000489751051645726,"49":0.000024037752154981717}},"output":{"rows":5,"columns":1,"weights":{"0":0.708554208278656,"1":0.000026027830244856887,"2":1.1421539783477783,"3":0.706386923789978,"4":0.33416876196861267}},"inputLookup":null,"inputLookupLength":null,"outputLookup":null,"outputLookupLength":null}